<?xml version="1.0"?>
<opencv_storage>
<cascade>
  <stageType>BOOST</stageType>
  <featureType>HAAR</featureType>
  <height>20</height>
  <width>20</width>
  <stageParams>
    <boostType>GAB</boostType>
    <minHitRate>9.9500000476837158e-01</minHitRate>
    <maxFalseAlarm>5.0000000000000000e-01</maxFalseAlarm>
    <weightTrimRate>9.4999999999999996e-01</weightTrimRate>
    <maxDepth>1</maxDepth>
    <maxWeakCount>100</maxWeakCount></stageParams>
  <featureParams>
    <maxCatCount>0</maxCatCount>
    <featSize>1</featSize>
    <mode>BASIC</mode></featureParams>
  <stageNum>5</stageNum>
  <stages>
    <!-- stage 0 -->
    <_>
      <maxWeakCount>2</maxWeakCount>
      <stageThreshold>-4.8748839646577835e-02</stageThreshold>
      <weakClassifiers>
        <_>
          <internalNodes>
            0 -1 2 1.1673469096422195e-01</internalNodes>
          <leafValues>
            -9.4176930189132690e-01 9.6347534656524658e-01</leafValues></_>
        <_>
          <internalNodes>
            0 -1 6 1.3137255609035492e-01</internalNodes>
          <leafValues>
            -9.4951587915420532e-01 8.9302045106887817e-01</leafValues></_></weakClassifiers></_>
    <!-- stage 1 -->
    <_>
      <maxWeakCount>2</maxWeakCount>
      <stageThreshold>-2.3473264276981354e-01</stageThreshold>
      <weakClassifiers>
        <_>
          <internalNodes>
            0 -1 13 -2.2734940052032471e-02</internalNodes>
          <leafValues>
            7.6623374223709106e-01 -9.0830945968627930e-01</leafValues></_>
        <_>
          <internalNodes>
            0 -1 5 2.3937737941741943e-01</internalNodes>
          <leafValues>
            -8.0732148885726929e-01 6.7357683181762695e-01</leafValues></_></weakClassifiers></_>
    <!-- stage 2 -->
    <_>
      <maxWeakCount>4</maxWeakCount>
      <stageThreshold>-7.4291610717773438e-01</stageThreshold>
      <weakClassifiers>
        <_>
          <internalNodes>
            0 -1 1 9.7365021705627441e-02</internalNodes>
          <leafValues>
            -7.7862596511840820e-01 7.8996866941452026e-01</leafValues></_>
        <_>
          <internalNodes>
            0 -1 11 -2.5190950836986303e-03</internalNodes>
          <leafValues>
            6.7451906204223633e-01 -7.6174515485763550e-01</leafValues></_>
        <_>
          <internalNodes>
            0 -1 12 3.2318560406565666e-03</internalNodes>
          <leafValues>
            -7.6218891143798828e-01 4.6012282371520996e-01</leafValues></_>
        <_>
          <internalNodes>
            0 -1 7 1.5170042403042316e-02</internalNodes>
          <leafValues>
            -9.0754824876785278e-01 3.3733218908309937e-01</leafValues></_></weakClassifiers></_>
    <!-- stage 3 -->
    <_>
      <maxWeakCount>4</maxWeakCount>
      <stageThreshold>-5.8403742313385010e-01</stageThreshold>
      <weakClassifiers>
        <_>
          <internalNodes>
            0 -1 3 3.5041056573390961e-02</internalNodes>
          <leafValues>
            -6.6587114334106445e-01 7.8302901983261108e-01</leafValues></_>
        <_>
          <internalNodes>
            0 -1 4 1.0491338372230530e-01</internalNodes>
          <leafValues>
            -6.6443723440170288e-01 5.5160403251647949e-01</leafValues></_>
        <_>
          <internalNodes>
            0 -1 9 -1.0985541343688965e-01</internalNodes>
          <leafValues>
            4.1047555208206177e-01 -8.6055129766464233e-01</leafValues></_>
        <_>
          <internalNodes>
            0 -1 14 -1.4559080824255943e-02</internalNodes>
          <leafValues>
            3.9078092575073242e-01 -7.3583585023880005e-01</leafValues></_></weakClassifiers></_>
    <!-- stage 4 -->
    <_>
      <maxWeakCount>4</maxWeakCount>
      <stageThreshold>-6.3493782281875610e-01</stageThreshold>
      <weakClassifiers>
        <_>
          <internalNodes>
            0 -1 0 2.2080463171005249e-01</internalNodes>
          <leafValues>
            -6.8824309110641479e-01 7.3134326934814453e-01</leafValues></_>
        <_>
          <internalNodes>
            0 -1 10 -4.4035301543772221e-03</internalNodes>
          <leafValues>
            4.4513815641403198e-01 -8.2206338644027710e-01</leafValues></_>
        <_>
          <internalNodes>
            0 -1 15 -4.3703895062208176e-02</internalNodes>
          <leafValues>
            4.4667416810989380e-01 -7.2648668289184570e-01</leafValues></_>
        <_>
          <internalNodes>
            0 -1 8 2.7488286141306162e-03</internalNodes>
          <leafValues>
            -6.9720494747161865e-01 4.2869445681571960e-01</leafValues></_></weakClassifiers></_></stages>
  <features>
    <_>
      <rects>
        <_>
          1 5 18 5 -1.</_>
        <_>
          7 5 6 5 3.</_></rects>
      <tilted>0</tilted></_>
    <_>
      <rects>
        <_>
          1 6 18 2 -1.</_>
        <_>
          7 6 6 2 3.</_></rects>
      <tilted>0</tilted></_>
    <_>
      <rects>
        <_>
          1 6 18 3 -1.</_>
        <_>
          7 6 6 3 3.</_></rects>
      <tilted>0</tilted></_>
    <_>
      <rects>
        <_>
          2 6 15 1 -1.</_>
        <_>
          7 6 5 1 3.</_></rects>
      <tilted>0</tilted></_>
    <_>
      <rects>
        <_>
          5 1 4 18 -1.</_>
        <_>
          5 7 4 6 3.</_></rects>
      <tilted>0</tilted></_>
    <_>
      <rects>
        <_>
          5 1 10 15 -1.</_>
        <_>
          5 6 10 5 3.</_></rects>
      <tilted>0</tilted></_>
    <_>
      <rects>
        <_>
          5 3 11 12 -1.</_>
        <_>
          5 7 11 4 3.</_></rects>
      <tilted>0</tilted></_>
    <_>
      <rects>
        <_>
          5 5 11 4 -1.</_>
        <_>
          5 7 11 2 2.</_></rects>
      <tilted>0</tilted></_>
    <_>
      <rects>
        <_>
          5 6 2 2 -1.</_>
        <_>
          6 6 1 2 2.</_></rects>
      <tilted>0</tilted></_>
    <_>
      <rects>
        <_>
          6 5 14 5 -1.</_>
        <_>
          13 5 7 5 2.</_></rects>
      <tilted>0</tilted></_>
    <_>
      <rects>
        <_>
          7 6 4 6 -1.</_>
        <_>
          7 6 2 3 2.</_>
        <_>
          9 9 2 3 2.</_></rects>
      <tilted>0</tilted></_>
    <_>
      <rects>
        <_>
          7 10 4 2 -1.</_>
        <_>
          9 10 2 2 2.</_></rects>
      <tilted>0</tilted></_>
    <_>
      <rects>
        <_>
          10 11 9 1 -1.</_>
        <_>
          13 11 3 1 3.</_></rects>
      <tilted>0</tilted></_>
    <_>
      <rects>
        <_>
          12 6 6 3 -1.</_>
        <_>
          15 6 3 3 2.</_></rects>
      <tilted>0</tilted></_>
    <_>
      <rects>
        <_>
          12 9 4 6 -1.</_>
        <_>
          12 12 4 3 2.</_></rects>
      <tilted>0</tilted></_>
    <_>
      <rects>
        <_>
          13 7 6 7 -1.</_>
        <_>
          16 7 3 7 2.</_></rects>
      <tilted>0</tilted></_></features></cascade>
</opencv_storage>
