<?xml version="1.0"?>
<opencv_storage>
<stage5>
  <maxWeakCount>6</maxWeakCount>
  <stageThreshold>-1.0253639221191406e+00</stageThreshold>
  <weakClassifiers>
    <_>
      <internalNodes>
        0 -1 35190 2.4468585848808289e-01</internalNodes>
      <leafValues>
        -6.9949918985366821e-01 6.2779629230499268e-01</leafValues></_>
    <_>
      <internalNodes>
        0 -1 60088 -2.7516704052686691e-02</internalNodes>
      <leafValues>
        3.2113105058670044e-01 -9.5430082082748413e-01</leafValues></_>
    <_>
      <internalNodes>
        0 -1 57406 -6.4549222588539124e-03</internalNodes>
      <leafValues>
        6.0517972707748413e-01 -5.1841878890991211e-01</leafValues></_>
    <_>
      <internalNodes>
        0 -1 57015 1.9630014896392822e-02</internalNodes>
      <leafValues>
        -9.1123527288436890e-01 2.7578344941139221e-01</leafValues></_>
    <_>
      <internalNodes>
        0 -1 31965 2.4935510009527206e-03</internalNodes>
      <leafValues>
        -6.2375932931900024e-01 3.8163653016090393e-01</leafValues></_>
    <_>
      <internalNodes>
        0 -1 47964 -1.4898984227329493e-04</internalNodes>
      <leafValues>
        -9.6717697381973267e-01 2.1939887106418610e-01</leafValues></_></weakClassifiers></stage5>
</opencv_storage>
